digraph Tree {
node [shape=box, style="filled, rounded", color="black", fontname=helvetica] ;
edge [fontname=helvetica] ;
0 [label="metadona <= -0.2\ngini = 0.61\nsamples = 1187\nvalue = [707, 887, 291]\nclass = Cluster 2", fillcolor="#39e58127"] ;
1 [label="ecstase <= 0.11\ngini = 0.51\nsamples = 887\nvalue = [549, 834, 47]\nclass = Cluster 2", fillcolor="#39e58152"] ;
0 -> 1 [labeldistance=2.5, labelangle=45, headlabel="True"] ;
2 [label="legalidade <= -0.48\ngini = 0.28\nsamples = 590\nvalue = [151, 796, 7]\nclass = Cluster 2", fillcolor="#39e581cd"] ;
1 -> 2 ;
3 [label="cogumelos <= 0.9\ngini = 0.13\nsamples = 503\nvalue = [56, 763, 1]\nclass = Cluster 2", fillcolor="#39e581ec"] ;
2 -> 3 ;
4 [label="anfetamina <= 0.65\ngini = 0.09\nsamples = 489\nvalue = [37, 759, 1]\nclass = Cluster 2", fillcolor="#39e581f2"] ;
3 -> 4 ;
5 [label="impulsividade <= 0.71\ngini = 0.07\nsamples = 482\nvalue = [29, 758, 1]\nclass = Cluster 2", fillcolor="#39e581f5"] ;
4 -> 5 ;
6 [label="anfetamina <= -0.47\ngini = 0.03\nsamples = 429\nvalue = [9, 689, 1]\nclass = Cluster 2", fillcolor="#39e581fb"] ;
5 -> 6 ;
7 [label="alcool <= 0.65\ngini = 0.0\nsamples = 361\nvalue = [0, 593, 1]\nclass = Cluster 2", fillcolor="#39e581ff"] ;
6 -> 7 ;
8 [label="gini = 0.0\nsamples = 266\nvalue = [0, 425, 0]\nclass = Cluster 2", fillcolor="#39e581ff"] ;
7 -> 8 ;
9 [label="maconha <= 0.88\ngini = 0.01\nsamples = 95\nvalue = [0, 168, 1]\nclass = Cluster 2", fillcolor="#39e581fd"] ;
7 -> 9 ;
10 [label="gini = 0.0\nsamples = 93\nvalue = [0, 167, 0]\nclass = Cluster 2", fillcolor="#39e581ff"] ;
9 -> 10 ;
11 [label="ascore <= 0.41\ngini = 0.5\nsamples = 2\nvalue = [0, 1, 1]\nclass = Cluster 2", fillcolor="#39e58100"] ;
9 -> 11 ;
12 [label="gini = 0.0\nsamples = 1\nvalue = [0, 0, 1]\nclass = Cluster 3", fillcolor="#8139e5ff"] ;
11 -> 12 ;
13 [label="gini = 0.0\nsamples = 1\nvalue = [0, 1, 0]\nclass = Cluster 2", fillcolor="#39e581ff"] ;
11 -> 13 ;
14 [label="cogumelos <= 0.21\ngini = 0.16\nsamples = 68\nvalue = [9, 96, 0]\nclass = Cluster 2", fillcolor="#39e581e7"] ;
6 -> 14 ;
15 [label="ketamina <= 0.76\ngini = 0.09\nsamples = 65\nvalue = [5, 96, 0]\nclass = Cluster 2", fillcolor="#39e581f2"] ;
14 -> 15 ;
16 [label="cocaina <= 0.89\ngini = 0.08\nsamples = 64\nvalue = [4, 96, 0]\nclass = Cluster 2", fillcolor="#39e581f4"] ;
15 -> 16 ;
17 [label="nitrato_amilato <= 3.19\ngini = 0.06\nsamples = 62\nvalue = [3, 95, 0]\nclass = Cluster 2", fillcolor="#39e581f7"] ;
16 -> 17 ;
18 [label="oscore <= 0.8\ngini = 0.04\nsamples = 61\nvalue = [2, 95, 0]\nclass = Cluster 2", fillcolor="#39e581fa"] ;
17 -> 18 ;
19 [label="gini = 0.0\nsamples = 52\nvalue = [0, 86, 0]\nclass = Cluster 2", fillcolor="#39e581ff"] ;
18 -> 19 ;
20 [label="cscore <= -0.4\ngini = 0.3\nsamples = 9\nvalue = [2, 9, 0]\nclass = Cluster 2", fillcolor="#39e581c6"] ;
18 -> 20 ;
21 [label="gini = 0.0\nsamples = 2\nvalue = [2, 0, 0]\nclass = Cluster 1", fillcolor="#e58139ff"] ;
20 -> 21 ;
22 [label="gini = 0.0\nsamples = 7\nvalue = [0, 9, 0]\nclass = Cluster 2", fillcolor="#39e581ff"] ;
20 -> 22 ;
23 [label="gini = 0.0\nsamples = 1\nvalue = [1, 0, 0]\nclass = Cluster 1", fillcolor="#e58139ff"] ;
17 -> 23 ;
24 [label="chocolate <= 0.36\ngini = 0.5\nsamples = 2\nvalue = [1, 1, 0]\nclass = Cluster 1", fillcolor="#e5813900"] ;
16 -> 24 ;
25 [label="gini = 0.0\nsamples = 1\nvalue = [0, 1, 0]\nclass = Cluster 2", fillcolor="#39e581ff"] ;
24 -> 25 ;
26 [label="gini = 0.0\nsamples = 1\nvalue = [1, 0, 0]\nclass = Cluster 1", fillcolor="#e58139ff"] ;
24 -> 26 ;
27 [label="gini = 0.0\nsamples = 1\nvalue = [1, 0, 0]\nclass = Cluster 1", fillcolor="#e58139ff"] ;
15 -> 27 ;
28 [label="gini = 0.0\nsamples = 3\nvalue = [4, 0, 0]\nclass = Cluster 1", fillcolor="#e58139ff"] ;
14 -> 28 ;
29 [label="escore <= -0.64\ngini = 0.35\nsamples = 53\nvalue = [20, 69, 0]\nclass = Cluster 2", fillcolor="#39e581b5"] ;
5 -> 29 ;
30 [label="ss <= 1.0\ngini = 0.3\nsamples = 7\nvalue = [9, 2, 0]\nclass = Cluster 1", fillcolor="#e58139c6"] ;
29 -> 30 ;
31 [label="idade <= -0.23\ngini = 0.44\nsamples = 5\nvalue = [4, 2, 0]\nclass = Cluster 1", fillcolor="#e581397f"] ;
30 -> 31 ;
32 [label="maconha <= 0.44\ngini = 0.44\nsamples = 3\nvalue = [1, 2, 0]\nclass = Cluster 2", fillcolor="#39e5817f"] ;
31 -> 32 ;
33 [label="gini = 0.0\nsamples = 2\nvalue = [0, 2, 0]\nclass = Cluster 2", fillcolor="#39e581ff"] ;
32 -> 33 ;
34 [label="gini = 0.0\nsamples = 1\nvalue = [1, 0, 0]\nclass = Cluster 1", fillcolor="#e58139ff"] ;
32 -> 34 ;
35 [label="gini = 0.0\nsamples = 2\nvalue = [3, 0, 0]\nclass = Cluster 1", fillcolor="#e58139ff"] ;
31 -> 35 ;
36 [label="gini = 0.0\nsamples = 2\nvalue = [5, 0, 0]\nclass = Cluster 1", fillcolor="#e58139ff"] ;
30 -> 36 ;
37 [label="alcool <= -0.85\ngini = 0.24\nsamples = 46\nvalue = [11, 67, 0]\nclass = Cluster 2", fillcolor="#39e581d5"] ;
29 -> 37 ;
38 [label="maconha <= -0.65\ngini = 0.48\nsamples = 12\nvalue = [9, 14, 0]\nclass = Cluster 2", fillcolor="#39e5815b"] ;
37 -> 38 ;
39 [label="gini = 0.0\nsamples = 8\nvalue = [0, 14, 0]\nclass = Cluster 2", fillcolor="#39e581ff"] ;
38 -> 39 ;
40 [label="gini = 0.0\nsamples = 4\nvalue = [9, 0, 0]\nclass = Cluster 1", fillcolor="#e58139ff"] ;
38 -> 40 ;
41 [label="ascore <= -1.34\ngini = 0.07\nsamples = 34\nvalue = [2, 53, 0]\nclass = Cluster 2", fillcolor="#39e581f5"] ;
37 -> 41 ;
42 [label="gini = 0.0\nsamples = 1\nvalue = [2, 0, 0]\nclass = Cluster 1", fillcolor="#e58139ff"] ;
41 -> 42 ;
43 [label="gini = 0.0\nsamples = 33\nvalue = [0, 53, 0]\nclass = Cluster 2", fillcolor="#39e581ff"] ;
41 -> 43 ;
44 [label="idade <= 1.46\ngini = 0.2\nsamples = 7\nvalue = [8, 1, 0]\nclass = Cluster 1", fillcolor="#e58139df"] ;
4 -> 44 ;
45 [label="gini = 0.0\nsamples = 6\nvalue = [8, 0, 0]\nclass = Cluster 1", fillcolor="#e58139ff"] ;
44 -> 45 ;
46 [label="gini = 0.0\nsamples = 1\nvalue = [0, 1, 0]\nclass = Cluster 2", fillcolor="#39e581ff"] ;
44 -> 46 ;
47 [label="lsd <= -0.38\ngini = 0.29\nsamples = 14\nvalue = [19, 4, 0]\nclass = Cluster 1", fillcolor="#e58139c9"] ;
3 -> 47 ;
48 [label="ss <= 0.09\ngini = 0.5\nsamples = 5\nvalue = [4, 4, 0]\nclass = Cluster 1", fillcolor="#e5813900"] ;
47 -> 48 ;
49 [label="gini = 0.0\nsamples = 3\nvalue = [0, 4, 0]\nclass = Cluster 2", fillcolor="#39e581ff"] ;
48 -> 49 ;
50 [label="gini = 0.0\nsamples = 2\nvalue = [4, 0, 0]\nclass = Cluster 1", fillcolor="#e58139ff"] ;
48 -> 50 ;
51 [label="gini = 0.0\nsamples = 9\nvalue = [15, 0, 0]\nclass = Cluster 1", fillcolor="#e58139ff"] ;
47 -> 51 ;
52 [label="escolaridade <= 0.81\ngini = 0.43\nsamples = 87\nvalue = [95, 33, 6]\nclass = Cluster 1", fillcolor="#e581399d"] ;
2 -> 52 ;
53 [label="oscore <= 0.51\ngini = 0.32\nsamples = 71\nvalue = [88, 17, 4]\nclass = Cluster 1", fillcolor="#e58139c5"] ;
52 -> 53 ;
54 [label="cogumelos <= -0.47\ngini = 0.47\nsamples = 42\nvalue = [42, 16, 4]\nclass = Cluster 1", fillcolor="#e5813990"] ;
53 -> 54 ;
55 [label="impulsividade <= 0.36\ngini = 0.57\nsamples = 19\nvalue = [12, 12, 2]\nclass = Cluster 1", fillcolor="#e5813900"] ;
54 -> 55 ;
56 [label="heroina <= 3.51\ngini = 0.51\nsamples = 11\nvalue = [4, 11, 2]\nclass = Cluster 2", fillcolor="#39e58189"] ;
55 -> 56 ;
57 [label="cocaina <= 0.55\ngini = 0.39\nsamples = 10\nvalue = [4, 11, 0]\nclass = Cluster 2", fillcolor="#39e581a2"] ;
56 -> 57 ;
58 [label="ascore <= 0.51\ngini = 0.34\nsamples = 9\nvalue = [3, 11, 0]\nclass = Cluster 2", fillcolor="#39e581b9"] ;
57 -> 58 ;
59 [label="vsa <= 0.59\ngini = 0.5\nsamples = 5\nvalue = [3, 3, 0]\nclass = Cluster 1", fillcolor="#e5813900"] ;
58 -> 59 ;
60 [label="nicotina <= 0.12\ngini = 0.48\nsamples = 4\nvalue = [2, 3, 0]\nclass = Cluster 2", fillcolor="#39e58155"] ;
59 -> 60 ;
61 [label="gini = 0.0\nsamples = 1\nvalue = [0, 2, 0]\nclass = Cluster 2", fillcolor="#39e581ff"] ;
60 -> 61 ;
62 [label="impulsividade <= -0.8\ngini = 0.44\nsamples = 3\nvalue = [2, 1, 0]\nclass = Cluster 1", fillcolor="#e581397f"] ;
60 -> 62 ;
63 [label="gini = 0.0\nsamples = 1\nvalue = [0, 1, 0]\nclass = Cluster 2", fillcolor="#39e581ff"] ;
62 -> 63 ;
64 [label="gini = 0.0\nsamples = 2\nvalue = [2, 0, 0]\nclass = Cluster 1", fillcolor="#e58139ff"] ;
62 -> 64 ;
65 [label="gini = 0.0\nsamples = 1\nvalue = [1, 0, 0]\nclass = Cluster 1", fillcolor="#e58139ff"] ;
59 -> 65 ;
66 [label="gini = 0.0\nsamples = 4\nvalue = [0, 8, 0]\nclass = Cluster 2", fillcolor="#39e581ff"] ;
58 -> 66 ;
67 [label="gini = 0.0\nsamples = 1\nvalue = [1, 0, 0]\nclass = Cluster 1", fillcolor="#e58139ff"] ;
57 -> 67 ;
68 [label="gini = 0.0\nsamples = 1\nvalue = [0, 0, 2]\nclass = Cluster 3", fillcolor="#8139e5ff"] ;
56 -> 68 ;
69 [label="cscore <= -0.51\ngini = 0.2\nsamples = 8\nvalue = [8, 1, 0]\nclass = Cluster 1", fillcolor="#e58139df"] ;
55 -> 69 ;
70 [label="gini = 0.0\nsamples = 5\nvalue = [6, 0, 0]\nclass = Cluster 1", fillcolor="#e58139ff"] ;
69 -> 70 ;
71 [label="oscore <= -0.58\ngini = 0.44\nsamples = 3\nvalue = [2, 1, 0]\nclass = Cluster 1", fillcolor="#e581397f"] ;
69 -> 71 ;
72 [label="gini = 0.0\nsamples = 2\nvalue = [2, 0, 0]\nclass = Cluster 1", fillcolor="#e58139ff"] ;
71 -> 72 ;
73 [label="gini = 0.0\nsamples = 1\nvalue = [0, 1, 0]\nclass = Cluster 2", fillcolor="#39e581ff"] ;
71 -> 73 ;
74 [label="ss <= -1.01\ngini = 0.29\nsamples = 23\nvalue = [30, 4, 2]\nclass = Cluster 1", fillcolor="#e58139cf"] ;
54 -> 74 ;
75 [label="gini = 0.0\nsamples = 1\nvalue = [0, 0, 2]\nclass = Cluster 3", fillcolor="#8139e5ff"] ;
74 -> 75 ;
76 [label="nscore <= 0.58\ngini = 0.21\nsamples = 22\nvalue = [30, 4, 0]\nclass = Cluster 1", fillcolor="#e58139dd"] ;
74 -> 76 ;
77 [label="gini = 0.0\nsamples = 14\nvalue = [23, 0, 0]\nclass = Cluster 1", fillcolor="#e58139ff"] ;
76 -> 77 ;
78 [label="impulsividade <= 0.36\ngini = 0.46\nsamples = 8\nvalue = [7, 4, 0]\nclass = Cluster 1", fillcolor="#e581396d"] ;
76 -> 78 ;
79 [label="escolaridade <= -0.34\ngini = 0.5\nsamples = 5\nvalue = [4, 4, 0]\nclass = Cluster 1", fillcolor="#e5813900"] ;
78 -> 79 ;
80 [label="ss <= -0.69\ngini = 0.32\nsamples = 3\nvalue = [4, 1, 0]\nclass = Cluster 1", fillcolor="#e58139bf"] ;
79 -> 80 ;
81 [label="gini = 0.0\nsamples = 1\nvalue = [0, 1, 0]\nclass = Cluster 2", fillcolor="#39e581ff"] ;
80 -> 81 ;
82 [label="gini = 0.0\nsamples = 2\nvalue = [4, 0, 0]\nclass = Cluster 1", fillcolor="#e58139ff"] ;
80 -> 82 ;
83 [label="gini = 0.0\nsamples = 2\nvalue = [0, 3, 0]\nclass = Cluster 2", fillcolor="#39e581ff"] ;
79 -> 83 ;
84 [label="gini = 0.0\nsamples = 3\nvalue = [3, 0, 0]\nclass = Cluster 1", fillcolor="#e58139ff"] ;
78 -> 84 ;
85 [label="escore <= -1.28\ngini = 0.04\nsamples = 29\nvalue = [46, 1, 0]\nclass = Cluster 1", fillcolor="#e58139f9"] ;
53 -> 85 ;
86 [label="legalidade <= 0.64\ngini = 0.38\nsamples = 4\nvalue = [3, 1, 0]\nclass = Cluster 1", fillcolor="#e58139aa"] ;
85 -> 86 ;
87 [label="gini = 0.0\nsamples = 1\nvalue = [0, 1, 0]\nclass = Cluster 2", fillcolor="#39e581ff"] ;
86 -> 87 ;
88 [label="gini = 0.0\nsamples = 3\nvalue = [3, 0, 0]\nclass = Cluster 1", fillcolor="#e58139ff"] ;
86 -> 88 ;
89 [label="gini = 0.0\nsamples = 25\nvalue = [43, 0, 0]\nclass = Cluster 1", fillcolor="#e58139ff"] ;
85 -> 89 ;
90 [label="lsd <= -0.38\ngini = 0.51\nsamples = 16\nvalue = [7, 16, 2]\nclass = Cluster 2", fillcolor="#39e58180"] ;
52 -> 90 ;
91 [label="ascore <= -0.68\ngini = 0.12\nsamples = 11\nvalue = [1, 14, 0]\nclass = Cluster 2", fillcolor="#39e581ed"] ;
90 -> 91 ;
92 [label="gini = 0.0\nsamples = 1\nvalue = [1, 0, 0]\nclass = Cluster 1", fillcolor="#e58139ff"] ;
91 -> 92 ;
93 [label="gini = 0.0\nsamples = 10\nvalue = [0, 14, 0]\nclass = Cluster 2", fillcolor="#39e581ff"] ;
91 -> 93 ;
94 [label="ascore <= 1.2\ngini = 0.56\nsamples = 5\nvalue = [6, 2, 2]\nclass = Cluster 1", fillcolor="#e581397f"] ;
90 -> 94 ;
95 [label="gini = 0.0\nsamples = 3\nvalue = [6, 0, 0]\nclass = Cluster 1", fillcolor="#e58139ff"] ;
94 -> 95 ;
96 [label="anfetamina <= -0.19\ngini = 0.5\nsamples = 2\nvalue = [0, 2, 2]\nclass = Cluster 2", fillcolor="#39e58100"] ;
94 -> 96 ;
97 [label="gini = 0.0\nsamples = 1\nvalue = [0, 2, 0]\nclass = Cluster 2", fillcolor="#39e581ff"] ;
96 -> 97 ;
98 [label="gini = 0.0\nsamples = 1\nvalue = [0, 0, 2]\nclass = Cluster 3", fillcolor="#8139e5ff"] ;
96 -> 98 ;
99 [label="semeron <= 12.5\ngini = 0.29\nsamples = 297\nvalue = [398, 38, 40]\nclass = Cluster 1", fillcolor="#e58139d1"] ;
1 -> 99 ;
100 [label="maconha <= -0.21\ngini = 0.28\nsamples = 296\nvalue = [398, 38, 36]\nclass = Cluster 1", fillcolor="#e58139d4"] ;
99 -> 100 ;
101 [label="legalidade <= -0.48\ngini = 0.5\nsamples = 51\nvalue = [50, 37, 1]\nclass = Cluster 1", fillcolor="#e5813941"] ;
100 -> 101 ;
102 [label="cogumelos <= 0.21\ngini = 0.45\nsamples = 28\nvalue = [16, 31, 0]\nclass = Cluster 2", fillcolor="#39e5817b"] ;
101 -> 102 ;
103 [label="ss <= 1.57\ngini = 0.19\nsamples = 14\nvalue = [3, 25, 0]\nclass = Cluster 2", fillcolor="#39e581e0"] ;
102 -> 103 ;
104 [label="ecstase <= 1.02\ngini = 0.14\nsamples = 13\nvalue = [2, 25, 0]\nclass = Cluster 2", fillcolor="#39e581eb"] ;
103 -> 104 ;
105 [label="ketamina <= 0.35\ngini = 0.07\nsamples = 12\nvalue = [1, 25, 0]\nclass = Cluster 2", fillcolor="#39e581f5"] ;
104 -> 105 ;
106 [label="gini = 0.0\nsamples = 9\nvalue = [0, 22, 0]\nclass = Cluster 2", fillcolor="#39e581ff"] ;
105 -> 106 ;
107 [label="chocolate <= -0.1\ngini = 0.38\nsamples = 3\nvalue = [1, 3, 0]\nclass = Cluster 2", fillcolor="#39e581aa"] ;
105 -> 107 ;
108 [label="gini = 0.0\nsamples = 1\nvalue = [1, 0, 0]\nclass = Cluster 1", fillcolor="#e58139ff"] ;
107 -> 108 ;
109 [label="gini = 0.0\nsamples = 2\nvalue = [0, 3, 0]\nclass = Cluster 2", fillcolor="#39e581ff"] ;
107 -> 109 ;
110 [label="gini = 0.0\nsamples = 1\nvalue = [1, 0, 0]\nclass = Cluster 1", fillcolor="#e58139ff"] ;
104 -> 110 ;
111 [label="gini = 0.0\nsamples = 1\nvalue = [1, 0, 0]\nclass = Cluster 1", fillcolor="#e58139ff"] ;
103 -> 111 ;
112 [label="escore <= -0.51\ngini = 0.43\nsamples = 14\nvalue = [13, 6, 0]\nclass = Cluster 1", fillcolor="#e5813989"] ;
102 -> 112 ;
113 [label="impulsividade <= -0.46\ngini = 0.44\nsamples = 6\nvalue = [3, 6, 0]\nclass = Cluster 2", fillcolor="#39e5817f"] ;
112 -> 113 ;
114 [label="gini = 0.0\nsamples = 3\nvalue = [0, 6, 0]\nclass = Cluster 2", fillcolor="#39e581ff"] ;
113 -> 114 ;
115 [label="gini = 0.0\nsamples = 3\nvalue = [3, 0, 0]\nclass = Cluster 1", fillcolor="#e58139ff"] ;
113 -> 115 ;
116 [label="gini = 0.0\nsamples = 8\nvalue = [10, 0, 0]\nclass = Cluster 1", fillcolor="#e58139ff"] ;
112 -> 116 ;
117 [label="oscore <= -0.58\ngini = 0.29\nsamples = 23\nvalue = [34, 6, 1]\nclass = Cluster 1", fillcolor="#e58139cc"] ;
101 -> 117 ;
118 [label="chocolate <= -0.56\ngini = 0.38\nsamples = 4\nvalue = [2, 6, 0]\nclass = Cluster 2", fillcolor="#39e581aa"] ;
117 -> 118 ;
119 [label="gini = 0.0\nsamples = 2\nvalue = [0, 6, 0]\nclass = Cluster 2", fillcolor="#39e581ff"] ;
118 -> 119 ;
120 [label="gini = 0.0\nsamples = 2\nvalue = [2, 0, 0]\nclass = Cluster 1", fillcolor="#e58139ff"] ;
118 -> 120 ;
121 [label="cscore <= 0.76\ngini = 0.06\nsamples = 19\nvalue = [32, 0, 1]\nclass = Cluster 1", fillcolor="#e58139f7"] ;
117 -> 121 ;
122 [label="gini = 0.0\nsamples = 15\nvalue = [26, 0, 0]\nclass = Cluster 1", fillcolor="#e58139ff"] ;
121 -> 122 ;
123 [label="nscore <= 0.6\ngini = 0.24\nsamples = 4\nvalue = [6, 0, 1]\nclass = Cluster 1", fillcolor="#e58139d4"] ;
121 -> 123 ;
124 [label="gini = 0.0\nsamples = 3\nvalue = [6, 0, 0]\nclass = Cluster 1", fillcolor="#e58139ff"] ;
123 -> 124 ;
125 [label="gini = 0.0\nsamples = 1\nvalue = [0, 0, 1]\nclass = Cluster 3", fillcolor="#8139e5ff"] ;
123 -> 125 ;
126 [label="ascore <= -0.84\ngini = 0.17\nsamples = 245\nvalue = [348, 1, 35]\nclass = Cluster 1", fillcolor="#e58139e5"] ;
100 -> 126 ;
127 [label="nitrato_amilato <= 3.19\ngini = 0.05\nsamples = 48\nvalue = [77, 0, 2]\nclass = Cluster 1", fillcolor="#e58139f8"] ;
126 -> 127 ;
128 [label="chocolate <= -3.31\ngini = 0.03\nsamples = 46\nvalue = [76, 0, 1]\nclass = Cluster 1", fillcolor="#e58139fc"] ;
127 -> 128 ;
129 [label="gini = 0.0\nsamples = 1\nvalue = [0, 0, 1]\nclass = Cluster 3", fillcolor="#8139e5ff"] ;
128 -> 129 ;
130 [label="gini = 0.0\nsamples = 45\nvalue = [76, 0, 0]\nclass = Cluster 1", fillcolor="#e58139ff"] ;
128 -> 130 ;
131 [label="legalidade <= 0.92\ngini = 0.5\nsamples = 2\nvalue = [1, 0, 1]\nclass = Cluster 1", fillcolor="#e5813900"] ;
127 -> 131 ;
132 [label="gini = 0.0\nsamples = 1\nvalue = [0, 0, 1]\nclass = Cluster 3", fillcolor="#8139e5ff"] ;
131 -> 132 ;
133 [label="gini = 0.0\nsamples = 1\nvalue = [1, 0, 0]\nclass = Cluster 1", fillcolor="#e58139ff"] ;
131 -> 133 ;
134 [label="nitrato_amilato <= 0.84\ngini = 0.2\nsamples = 197\nvalue = [271, 1, 33]\nclass = Cluster 1", fillcolor="#e58139df"] ;
126 -> 134 ;
135 [label="sexo <= 0.0\ngini = 0.09\nsamples = 110\nvalue = [163, 1, 7]\nclass = Cluster 1", fillcolor="#e58139f3"] ;
134 -> 135 ;
136 [label="crack <= 2.03\ngini = 0.04\nsamples = 61\nvalue = [102, 1, 1]\nclass = Cluster 1", fillcolor="#e58139fa"] ;
135 -> 136 ;
137 [label="nicotina <= 0.95\ngini = 0.02\nsamples = 58\nvalue = [99, 1, 0]\nclass = Cluster 1", fillcolor="#e58139fc"] ;
136 -> 137 ;
138 [label="gini = 0.0\nsamples = 37\nvalue = [62, 0, 0]\nclass = Cluster 1", fillcolor="#e58139ff"] ;
137 -> 138 ;
139 [label="maconha <= 0.22\ngini = 0.05\nsamples = 21\nvalue = [37, 1, 0]\nclass = Cluster 1", fillcolor="#e58139f8"] ;
137 -> 139 ;
140 [label="impulsividade <= -0.8\ngini = 0.38\nsamples = 3\nvalue = [3, 1, 0]\nclass = Cluster 1", fillcolor="#e58139aa"] ;
139 -> 140 ;
141 [label="gini = 0.0\nsamples = 1\nvalue = [0, 1, 0]\nclass = Cluster 2", fillcolor="#39e581ff"] ;
140 -> 141 ;
142 [label="gini = 0.0\nsamples = 2\nvalue = [3, 0, 0]\nclass = Cluster 1", fillcolor="#e58139ff"] ;
140 -> 142 ;
143 [label="gini = 0.0\nsamples = 18\nvalue = [34, 0, 0]\nclass = Cluster 1", fillcolor="#e58139ff"] ;
139 -> 143 ;
144 [label="nscore <= 0.42\ngini = 0.38\nsamples = 3\nvalue = [3, 0, 1]\nclass = Cluster 1", fillcolor="#e58139aa"] ;
136 -> 144 ;
145 [label="gini = 0.0\nsamples = 2\nvalue = [3, 0, 0]\nclass = Cluster 1", fillcolor="#e58139ff"] ;
144 -> 145 ;
146 [label="gini = 0.0\nsamples = 1\nvalue = [0, 0, 1]\nclass = Cluster 3", fillcolor="#8139e5ff"] ;
144 -> 146 ;
147 [label="benzodiazepina <= 0.55\ngini = 0.16\nsamples = 49\nvalue = [61, 0, 6]\nclass = Cluster 1", fillcolor="#e58139e6"] ;
135 -> 147 ;
148 [label="escore <= -0.88\ngini = 0.04\nsamples = 33\nvalue = [48, 0, 1]\nclass = Cluster 1", fillcolor="#e58139fa"] ;
147 -> 148 ;
149 [label="lsd <= 0.29\ngini = 0.32\nsamples = 4\nvalue = [4, 0, 1]\nclass = Cluster 1", fillcolor="#e58139bf"] ;
148 -> 149 ;
150 [label="gini = 0.0\nsamples = 1\nvalue = [0, 0, 1]\nclass = Cluster 3", fillcolor="#8139e5ff"] ;
149 -> 150 ;
151 [label="gini = 0.0\nsamples = 3\nvalue = [4, 0, 0]\nclass = Cluster 1", fillcolor="#e58139ff"] ;
149 -> 151 ;
152 [label="gini = 0.0\nsamples = 29\nvalue = [44, 0, 0]\nclass = Cluster 1", fillcolor="#e58139ff"] ;
148 -> 152 ;
153 [label="alcool <= 0.65\ngini = 0.4\nsamples = 16\nvalue = [13, 0, 5]\nclass = Cluster 1", fillcolor="#e581399d"] ;
147 -> 153 ;
154 [label="cscore <= -0.72\ngini = 0.18\nsamples = 8\nvalue = [9, 0, 1]\nclass = Cluster 1", fillcolor="#e58139e3"] ;
153 -> 154 ;
155 [label="gini = 0.0\nsamples = 1\nvalue = [0, 0, 1]\nclass = Cluster 3", fillcolor="#8139e5ff"] ;
154 -> 155 ;
156 [label="gini = 0.0\nsamples = 7\nvalue = [9, 0, 0]\nclass = Cluster 1", fillcolor="#e58139ff"] ;
154 -> 156 ;
157 [label="cocaina <= 0.22\ngini = 0.5\nsamples = 8\nvalue = [4, 0, 4]\nclass = Cluster 1", fillcolor="#e5813900"] ;
153 -> 157 ;
158 [label="gini = 0.0\nsamples = 3\nvalue = [3, 0, 0]\nclass = Cluster 1", fillcolor="#e58139ff"] ;
157 -> 158 ;
159 [label="maconha <= 0.22\ngini = 0.32\nsamples = 5\nvalue = [1, 0, 4]\nclass = Cluster 3", fillcolor="#8139e5bf"] ;
157 -> 159 ;
160 [label="gini = 0.0\nsamples = 1\nvalue = [1, 0, 0]\nclass = Cluster 1", fillcolor="#e58139ff"] ;
159 -> 160 ;
161 [label="gini = 0.0\nsamples = 4\nvalue = [0, 0, 4]\nclass = Cluster 3", fillcolor="#8139e5ff"] ;
159 -> 161 ;
162 [label="nicotina <= 0.54\ngini = 0.31\nsamples = 87\nvalue = [108, 0, 26]\nclass = Cluster 1", fillcolor="#e58139c2"] ;
134 -> 162 ;
163 [label="benzodiazepina <= 1.09\ngini = 0.05\nsamples = 26\nvalue = [36, 0, 1]\nclass = Cluster 1", fillcolor="#e58139f8"] ;
162 -> 163 ;
164 [label="gini = 0.0\nsamples = 23\nvalue = [34, 0, 0]\nclass = Cluster 1", fillcolor="#e58139ff"] ;
163 -> 164 ;
165 [label="ss <= 1.57\ngini = 0.44\nsamples = 3\nvalue = [2, 0, 1]\nclass = Cluster 1", fillcolor="#e581397f"] ;
163 -> 165 ;
166 [label="gini = 0.0\nsamples = 2\nvalue = [2, 0, 0]\nclass = Cluster 1", fillcolor="#e58139ff"] ;
165 -> 166 ;
167 [label="gini = 0.0\nsamples = 1\nvalue = [0, 0, 1]\nclass = Cluster 3", fillcolor="#8139e5ff"] ;
165 -> 167 ;
168 [label="benzodiazepina <= 1.09\ngini = 0.38\nsamples = 61\nvalue = [72, 0, 25]\nclass = Cluster 1", fillcolor="#e58139a6"] ;
162 -> 168 ;
169 [label="vsa <= 3.71\ngini = 0.06\nsamples = 43\nvalue = [63, 0, 2]\nclass = Cluster 1", fillcolor="#e58139f7"] ;
168 -> 169 ;
170 [label="gini = 0.0\nsamples = 42\nvalue = [63, 0, 0]\nclass = Cluster 1", fillcolor="#e58139ff"] ;
169 -> 170 ;
171 [label="gini = 0.0\nsamples = 1\nvalue = [0, 0, 2]\nclass = Cluster 3", fillcolor="#8139e5ff"] ;
169 -> 171 ;
172 [label="vsa <= 1.11\ngini = 0.4\nsamples = 18\nvalue = [9, 0, 23]\nclass = Cluster 3", fillcolor="#8139e59b"] ;
168 -> 172 ;
173 [label="ss <= 0.58\ngini = 0.44\nsamples = 8\nvalue = [8, 0, 4]\nclass = Cluster 1", fillcolor="#e581397f"] ;
172 -> 173 ;
174 [label="sexo <= 0.0\ngini = 0.2\nsamples = 6\nvalue = [8, 0, 1]\nclass = Cluster 1", fillcolor="#e58139df"] ;
173 -> 174 ;
175 [label="ascore <= 0.42\ngini = 0.5\nsamples = 2\nvalue = [1, 0, 1]\nclass = Cluster 1", fillcolor="#e5813900"] ;
174 -> 175 ;
176 [label="gini = 0.0\nsamples = 1\nvalue = [1, 0, 0]\nclass = Cluster 1", fillcolor="#e58139ff"] ;
175 -> 176 ;
177 [label="gini = 0.0\nsamples = 1\nvalue = [0, 0, 1]\nclass = Cluster 3", fillcolor="#8139e5ff"] ;
175 -> 177 ;
178 [label="gini = 0.0\nsamples = 4\nvalue = [7, 0, 0]\nclass = Cluster 1", fillcolor="#e58139ff"] ;
174 -> 178 ;
179 [label="gini = 0.0\nsamples = 2\nvalue = [0, 0, 3]\nclass = Cluster 3", fillcolor="#8139e5ff"] ;
173 -> 179 ;
180 [label="legalidade <= 1.2\ngini = 0.09\nsamples = 10\nvalue = [1, 0, 19]\nclass = Cluster 3", fillcolor="#8139e5f2"] ;
172 -> 180 ;
181 [label="maconha <= 0.88\ngini = 0.24\nsamples = 4\nvalue = [1, 0, 6]\nclass = Cluster 3", fillcolor="#8139e5d4"] ;
180 -> 181 ;
182 [label="gini = 0.0\nsamples = 3\nvalue = [0, 0, 6]\nclass = Cluster 3", fillcolor="#8139e5ff"] ;
181 -> 182 ;
183 [label="gini = 0.0\nsamples = 1\nvalue = [1, 0, 0]\nclass = Cluster 1", fillcolor="#e58139ff"] ;
181 -> 183 ;
184 [label="gini = 0.0\nsamples = 6\nvalue = [0, 0, 13]\nclass = Cluster 3", fillcolor="#8139e5ff"] ;
180 -> 184 ;
185 [label="gini = 0.0\nsamples = 1\nvalue = [0, 0, 4]\nclass = Cluster 3", fillcolor="#8139e5ff"] ;
99 -> 185 ;
186 [label="anfetamina <= 0.09\ngini = 0.58\nsamples = 300\nvalue = [158, 53, 244]\nclass = Cluster 3", fillcolor="#8139e54a"] ;
0 -> 186 [labeldistance=2.5, labelangle=-45, headlabel="False"] ;
187 [label="heroina <= 1.09\ngini = 0.61\nsamples = 95\nvalue = [70, 42, 25]\nclass = Cluster 1", fillcolor="#e581394b"] ;
186 -> 187 ;
188 [label="ss <= -0.07\ngini = 0.54\nsamples = 82\nvalue = [67, 41, 8]\nclass = Cluster 1", fillcolor="#e5813958"] ;
187 -> 188 ;
189 [label="cogumelos <= 0.21\ngini = 0.39\nsamples = 29\nvalue = [8, 27, 1]\nclass = Cluster 2", fillcolor="#39e581ad"] ;
188 -> 189 ;
190 [label="cafeina <= 0.01\ngini = 0.13\nsamples = 22\nvalue = [2, 27, 0]\nclass = Cluster 2", fillcolor="#39e581ec"] ;
189 -> 190 ;
191 [label="nscore <= 0.78\ngini = 0.38\nsamples = 6\nvalue = [2, 6, 0]\nclass = Cluster 2", fillcolor="#39e581aa"] ;
190 -> 191 ;
192 [label="idade <= -0.52\ngini = 0.44\nsamples = 3\nvalue = [2, 1, 0]\nclass = Cluster 1", fillcolor="#e581397f"] ;
191 -> 192 ;
193 [label="gini = 0.0\nsamples = 1\nvalue = [0, 1, 0]\nclass = Cluster 2", fillcolor="#39e581ff"] ;
192 -> 193 ;
194 [label="gini = 0.0\nsamples = 2\nvalue = [2, 0, 0]\nclass = Cluster 1", fillcolor="#e58139ff"] ;
192 -> 194 ;
195 [label="gini = 0.0\nsamples = 3\nvalue = [0, 5, 0]\nclass = Cluster 2", fillcolor="#39e581ff"] ;
191 -> 195 ;
196 [label="gini = 0.0\nsamples = 16\nvalue = [0, 21, 0]\nclass = Cluster 2", fillcolor="#39e581ff"] ;
190 -> 196 ;
197 [label="nitrato_amilato <= 2.25\ngini = 0.24\nsamples = 7\nvalue = [6, 0, 1]\nclass = Cluster 1", fillcolor="#e58139d4"] ;
189 -> 197 ;
198 [label="gini = 0.0\nsamples = 6\nvalue = [6, 0, 0]\nclass = Cluster 1", fillcolor="#e58139ff"] ;
197 -> 198 ;
199 [label="gini = 0.0\nsamples = 1\nvalue = [0, 0, 1]\nclass = Cluster 3", fillcolor="#8139e5ff"] ;
197 -> 199 ;
200 [label="oscore <= 0.8\ngini = 0.42\nsamples = 53\nvalue = [59, 14, 7]\nclass = Cluster 1", fillcolor="#e58139ae"] ;
188 -> 200 ;
201 [label="lsd <= -0.38\ngini = 0.52\nsamples = 37\nvalue = [34, 14, 6]\nclass = Cluster 1", fillcolor="#e5813980"] ;
200 -> 201 ;
202 [label="impulsividade <= 0.71\ngini = 0.48\nsamples = 11\nvalue = [7, 11, 0]\nclass = Cluster 2", fillcolor="#39e5815d"] ;
201 -> 202 ;
203 [label="cscore <= 0.27\ngini = 0.17\nsamples = 6\nvalue = [1, 10, 0]\nclass = Cluster 2", fillcolor="#39e581e6"] ;
202 -> 203 ;
204 [label="sexo <= 0.0\ngini = 0.5\nsamples = 2\nvalue = [1, 1, 0]\nclass = Cluster 1", fillcolor="#e5813900"] ;
203 -> 204 ;
205 [label="gini = 0.0\nsamples = 1\nvalue = [1, 0, 0]\nclass = Cluster 1", fillcolor="#e58139ff"] ;
204 -> 205 ;
206 [label="gini = 0.0\nsamples = 1\nvalue = [0, 1, 0]\nclass = Cluster 2", fillcolor="#39e581ff"] ;
204 -> 206 ;
207 [label="gini = 0.0\nsamples = 4\nvalue = [0, 9, 0]\nclass = Cluster 2", fillcolor="#39e581ff"] ;
203 -> 207 ;
208 [label="nscore <= 1.14\ngini = 0.24\nsamples = 5\nvalue = [6, 1, 0]\nclass = Cluster 1", fillcolor="#e58139d4"] ;
202 -> 208 ;
209 [label="gini = 0.0\nsamples = 4\nvalue = [6, 0, 0]\nclass = Cluster 1", fillcolor="#e58139ff"] ;
208 -> 209 ;
210 [label="gini = 0.0\nsamples = 1\nvalue = [0, 1, 0]\nclass = Cluster 2", fillcolor="#39e581ff"] ;
208 -> 210 ;
211 [label="nscore <= 0.32\ngini = 0.4\nsamples = 26\nvalue = [27, 3, 6]\nclass = Cluster 1", fillcolor="#e58139b2"] ;
201 -> 211 ;
212 [label="escore <= 1.05\ngini = 0.08\nsamples = 16\nvalue = [22, 1, 0]\nclass = Cluster 1", fillcolor="#e58139f3"] ;
211 -> 212 ;
213 [label="gini = 0.0\nsamples = 13\nvalue = [18, 0, 0]\nclass = Cluster 1", fillcolor="#e58139ff"] ;
212 -> 213 ;
214 [label="vsa <= 0.07\ngini = 0.32\nsamples = 3\nvalue = [4, 1, 0]\nclass = Cluster 1", fillcolor="#e58139bf"] ;
212 -> 214 ;
215 [label="gini = 0.0\nsamples = 2\nvalue = [4, 0, 0]\nclass = Cluster 1", fillcolor="#e58139ff"] ;
214 -> 215 ;
216 [label="gini = 0.0\nsamples = 1\nvalue = [0, 1, 0]\nclass = Cluster 2", fillcolor="#39e581ff"] ;
214 -> 216 ;
217 [label="cocaina <= 0.22\ngini = 0.62\nsamples = 10\nvalue = [5, 2, 6]\nclass = Cluster 3", fillcolor="#8139e520"] ;
211 -> 217 ;
218 [label="anfetamina <= -0.47\ngini = 0.48\nsamples = 4\nvalue = [3, 2, 0]\nclass = Cluster 1", fillcolor="#e5813955"] ;
217 -> 218 ;
219 [label="gini = 0.0\nsamples = 1\nvalue = [0, 2, 0]\nclass = Cluster 2", fillcolor="#39e581ff"] ;
218 -> 219 ;
220 [label="gini = 0.0\nsamples = 3\nvalue = [3, 0, 0]\nclass = Cluster 1", fillcolor="#e58139ff"] ;
218 -> 220 ;
221 [label="benzodiazepina <= 0.82\ngini = 0.38\nsamples = 6\nvalue = [2, 0, 6]\nclass = Cluster 3", fillcolor="#8139e5aa"] ;
217 -> 221 ;
222 [label="gini = 0.0\nsamples = 2\nvalue = [2, 0, 0]\nclass = Cluster 1", fillcolor="#e58139ff"] ;
221 -> 222 ;
223 [label="gini = 0.0\nsamples = 4\nvalue = [0, 0, 6]\nclass = Cluster 3", fillcolor="#8139e5ff"] ;
221 -> 223 ;
224 [label="cocaina <= 2.21\ngini = 0.07\nsamples = 16\nvalue = [25, 0, 1]\nclass = Cluster 1", fillcolor="#e58139f5"] ;
200 -> 224 ;
225 [label="gini = 0.0\nsamples = 15\nvalue = [25, 0, 0]\nclass = Cluster 1", fillcolor="#e58139ff"] ;
224 -> 225 ;
226 [label="gini = 0.0\nsamples = 1\nvalue = [0, 0, 1]\nclass = Cluster 3", fillcolor="#8139e5ff"] ;
224 -> 226 ;
227 [label="alcool <= -1.6\ngini = 0.32\nsamples = 13\nvalue = [3, 1, 17]\nclass = Cluster 3", fillcolor="#8139e5c6"] ;
187 -> 227 ;
228 [label="nscore <= 0.32\ngini = 0.61\nsamples = 4\nvalue = [3, 1, 2]\nclass = Cluster 1", fillcolor="#e5813940"] ;
227 -> 228 ;
229 [label="gini = 0.0\nsamples = 2\nvalue = [3, 0, 0]\nclass = Cluster 1", fillcolor="#e58139ff"] ;
228 -> 229 ;
230 [label="ecstase <= -0.49\ngini = 0.44\nsamples = 2\nvalue = [0, 1, 2]\nclass = Cluster 3", fillcolor="#8139e57f"] ;
228 -> 230 ;
231 [label="gini = 0.0\nsamples = 1\nvalue = [0, 0, 2]\nclass = Cluster 3", fillcolor="#8139e5ff"] ;
230 -> 231 ;
232 [label="gini = 0.0\nsamples = 1\nvalue = [0, 1, 0]\nclass = Cluster 2", fillcolor="#39e581ff"] ;
230 -> 232 ;
233 [label="gini = 0.0\nsamples = 9\nvalue = [0, 0, 15]\nclass = Cluster 3", fillcolor="#8139e5ff"] ;
227 -> 233 ;
234 [label="crack <= 0.24\ngini = 0.45\nsamples = 205\nvalue = [88, 11, 219]\nclass = Cluster 3", fillcolor="#8139e591"] ;
186 -> 234 ;
235 [label="nicotina <= 0.54\ngini = 0.54\nsamples = 123\nvalue = [80, 10, 100]\nclass = Cluster 3", fillcolor="#8139e52e"] ;
234 -> 235 ;
236 [label="nicotina <= -0.29\ngini = 0.53\nsamples = 55\nvalue = [52, 10, 22]\nclass = Cluster 1", fillcolor="#e581397b"] ;
235 -> 236 ;
237 [label="escore <= -0.62\ngini = 0.65\nsamples = 25\nvalue = [16, 10, 13]\nclass = Cluster 1", fillcolor="#e581391d"] ;
236 -> 237 ;
238 [label="nscore <= 1.42\ngini = 0.3\nsamples = 8\nvalue = [2, 0, 9]\nclass = Cluster 3", fillcolor="#8139e5c6"] ;
237 -> 238 ;
239 [label="metadona <= 1.93\ngini = 0.48\nsamples = 5\nvalue = [2, 0, 3]\nclass = Cluster 3", fillcolor="#8139e555"] ;
238 -> 239 ;
240 [label="gini = 0.0\nsamples = 2\nvalue = [2, 0, 0]\nclass = Cluster 1", fillcolor="#e58139ff"] ;
239 -> 240 ;
241 [label="gini = 0.0\nsamples = 3\nvalue = [0, 0, 3]\nclass = Cluster 3", fillcolor="#8139e5ff"] ;
239 -> 241 ;
242 [label="gini = 0.0\nsamples = 3\nvalue = [0, 0, 6]\nclass = Cluster 3", fillcolor="#8139e5ff"] ;
238 -> 242 ;
243 [label="oscore <= -0.85\ngini = 0.6\nsamples = 17\nvalue = [14, 10, 4]\nclass = Cluster 1", fillcolor="#e5813939"] ;
237 -> 243 ;
244 [label="gini = 0.0\nsamples = 2\nvalue = [0, 6, 0]\nclass = Cluster 2", fillcolor="#39e581ff"] ;
243 -> 244 ;
245 [label="maconha <= -0.65\ngini = 0.53\nsamples = 15\nvalue = [14, 4, 4]\nclass = Cluster 1", fillcolor="#e581398e"] ;
243 -> 245 ;
246 [label="gini = 0.0\nsamples = 2\nvalue = [0, 4, 0]\nclass = Cluster 2", fillcolor="#39e581ff"] ;
245 -> 246 ;
247 [label="benzodiazepina <= 1.63\ngini = 0.35\nsamples = 13\nvalue = [14, 0, 4]\nclass = Cluster 1", fillcolor="#e58139b6"] ;
245 -> 247 ;
248 [label="gini = 0.0\nsamples = 9\nvalue = [11, 0, 0]\nclass = Cluster 1", fillcolor="#e58139ff"] ;
247 -> 248 ;
249 [label="lsd <= -0.04\ngini = 0.49\nsamples = 4\nvalue = [3, 0, 4]\nclass = Cluster 3", fillcolor="#8139e540"] ;
247 -> 249 ;
250 [label="gini = 0.0\nsamples = 1\nvalue = [3, 0, 0]\nclass = Cluster 1", fillcolor="#e58139ff"] ;
249 -> 250 ;
251 [label="gini = 0.0\nsamples = 3\nvalue = [0, 0, 4]\nclass = Cluster 3", fillcolor="#8139e5ff"] ;
249 -> 251 ;
252 [label="legalidade <= 1.76\ngini = 0.32\nsamples = 30\nvalue = [36, 0, 9]\nclass = Cluster 1", fillcolor="#e58139bf"] ;
236 -> 252 ;
253 [label="heroina <= 2.06\ngini = 0.25\nsamples = 26\nvalue = [35, 0, 6]\nclass = Cluster 1", fillcolor="#e58139d3"] ;
252 -> 253 ;
254 [label="semeron <= 3.08\ngini = 0.1\nsamples = 23\nvalue = [35, 0, 2]\nclass = Cluster 1", fillcolor="#e58139f0"] ;
253 -> 254 ;
255 [label="gini = 0.0\nsamples = 22\nvalue = [35, 0, 0]\nclass = Cluster 1", fillcolor="#e58139ff"] ;
254 -> 255 ;
256 [label="gini = 0.0\nsamples = 1\nvalue = [0, 0, 2]\nclass = Cluster 3", fillcolor="#8139e5ff"] ;
254 -> 256 ;
257 [label="gini = 0.0\nsamples = 3\nvalue = [0, 0, 4]\nclass = Cluster 3", fillcolor="#8139e5ff"] ;
253 -> 257 ;
258 [label="cocaina <= 0.22\ngini = 0.38\nsamples = 4\nvalue = [1, 0, 3]\nclass = Cluster 3", fillcolor="#8139e5aa"] ;
252 -> 258 ;
259 [label="gini = 0.0\nsamples = 3\nvalue = [0, 0, 3]\nclass = Cluster 3", fillcolor="#8139e5ff"] ;
258 -> 259 ;
260 [label="gini = 0.0\nsamples = 1\nvalue = [1, 0, 0]\nclass = Cluster 1", fillcolor="#e58139ff"] ;
258 -> 260 ;
261 [label="cocaina <= 0.89\ngini = 0.39\nsamples = 68\nvalue = [28, 0, 78]\nclass = Cluster 3", fillcolor="#8139e5a3"] ;
235 -> 261 ;
262 [label="heroina <= 1.09\ngini = 0.49\nsamples = 19\nvalue = [18, 0, 13]\nclass = Cluster 1", fillcolor="#e5813947"] ;
261 -> 262 ;
263 [label="cocaina <= 0.22\ngini = 0.38\nsamples = 15\nvalue = [18, 0, 6]\nclass = Cluster 1", fillcolor="#e58139aa"] ;
262 -> 263 ;
264 [label="cocaina <= -0.44\ngini = 0.47\nsamples = 11\nvalue = [10, 0, 6]\nclass = Cluster 1", fillcolor="#e5813966"] ;
263 -> 264 ;
265 [label="ascore <= 2.64\ngini = 0.17\nsamples = 9\nvalue = [10, 0, 1]\nclass = Cluster 1", fillcolor="#e58139e6"] ;
264 -> 265 ;
266 [label="gini = 0.0\nsamples = 8\nvalue = [10, 0, 0]\nclass = Cluster 1", fillcolor="#e58139ff"] ;
265 -> 266 ;
267 [label="gini = 0.0\nsamples = 1\nvalue = [0, 0, 1]\nclass = Cluster 3", fillcolor="#8139e5ff"] ;
265 -> 267 ;
268 [label="gini = 0.0\nsamples = 2\nvalue = [0, 0, 5]\nclass = Cluster 3", fillcolor="#8139e5ff"] ;
264 -> 268 ;
269 [label="gini = 0.0\nsamples = 4\nvalue = [8, 0, 0]\nclass = Cluster 1", fillcolor="#e58139ff"] ;
263 -> 269 ;
270 [label="gini = 0.0\nsamples = 4\nvalue = [0, 0, 7]\nclass = Cluster 3", fillcolor="#8139e5ff"] ;
262 -> 270 ;
271 [label="benzodiazepina <= -0.25\ngini = 0.23\nsamples = 49\nvalue = [10, 0, 65]\nclass = Cluster 3", fillcolor="#8139e5d8"] ;
261 -> 271 ;
272 [label="gini = 0.0\nsamples = 2\nvalue = [3, 0, 0]\nclass = Cluster 1", fillcolor="#e58139ff"] ;
271 -> 272 ;
273 [label="ascore <= 2.14\ngini = 0.18\nsamples = 47\nvalue = [7, 0, 65]\nclass = Cluster 3", fillcolor="#8139e5e4"] ;
271 -> 273 ;
274 [label="legalidade <= -0.2\ngini = 0.11\nsamples = 46\nvalue = [4, 0, 65]\nclass = Cluster 3", fillcolor="#8139e5ef"] ;
273 -> 274 ;
275 [label="lsd <= 0.29\ngini = 0.4\nsamples = 9\nvalue = [3, 0, 8]\nclass = Cluster 3", fillcolor="#8139e59f"] ;
274 -> 275 ;
276 [label="vsa <= 0.59\ngini = 0.5\nsamples = 5\nvalue = [3, 0, 3]\nclass = Cluster 1", fillcolor="#e5813900"] ;
275 -> 276 ;
277 [label="gini = 0.0\nsamples = 3\nvalue = [3, 0, 0]\nclass = Cluster 1", fillcolor="#e58139ff"] ;
276 -> 277 ;
278 [label="gini = 0.0\nsamples = 2\nvalue = [0, 0, 3]\nclass = Cluster 3", fillcolor="#8139e5ff"] ;
276 -> 278 ;
279 [label="gini = 0.0\nsamples = 4\nvalue = [0, 0, 5]\nclass = Cluster 3", fillcolor="#8139e5ff"] ;
275 -> 279 ;
280 [label="impulsividade <= -1.05\ngini = 0.03\nsamples = 37\nvalue = [1, 0, 57]\nclass = Cluster 3", fillcolor="#8139e5fb"] ;
274 -> 280 ;
281 [label="escolaridade <= -0.34\ngini = 0.5\nsamples = 2\nvalue = [1, 0, 1]\nclass = Cluster 1", fillcolor="#e5813900"] ;
280 -> 281 ;
282 [label="gini = 0.0\nsamples = 1\nvalue = [1, 0, 0]\nclass = Cluster 1", fillcolor="#e58139ff"] ;
281 -> 282 ;
283 [label="gini = 0.0\nsamples = 1\nvalue = [0, 0, 1]\nclass = Cluster 3", fillcolor="#8139e5ff"] ;
281 -> 283 ;
284 [label="gini = 0.0\nsamples = 35\nvalue = [0, 0, 56]\nclass = Cluster 3", fillcolor="#8139e5ff"] ;
280 -> 284 ;
285 [label="gini = 0.0\nsamples = 1\nvalue = [3, 0, 0]\nclass = Cluster 1", fillcolor="#e58139ff"] ;
273 -> 285 ;
286 [label="heroina <= 1.09\ngini = 0.13\nsamples = 82\nvalue = [8, 1, 119]\nclass = Cluster 3", fillcolor="#8139e5ec"] ;
234 -> 286 ;
287 [label="maconha <= -0.21\ngini = 0.48\nsamples = 20\nvalue = [8, 1, 17]\nclass = Cluster 3", fillcolor="#8139e580"] ;
286 -> 287 ;
288 [label="oscore <= -0.79\ngini = 0.32\nsamples = 5\nvalue = [4, 1, 0]\nclass = Cluster 1", fillcolor="#e58139bf"] ;
287 -> 288 ;
289 [label="gini = 0.0\nsamples = 1\nvalue = [0, 1, 0]\nclass = Cluster 2", fillcolor="#39e581ff"] ;
288 -> 289 ;
290 [label="gini = 0.0\nsamples = 4\nvalue = [4, 0, 0]\nclass = Cluster 1", fillcolor="#e58139ff"] ;
288 -> 290 ;
291 [label="oscore <= 1.66\ngini = 0.31\nsamples = 15\nvalue = [4, 0, 17]\nclass = Cluster 3", fillcolor="#8139e5c3"] ;
287 -> 291 ;
292 [label="heroina <= 0.12\ngini = 0.1\nsamples = 13\nvalue = [1, 0, 17]\nclass = Cluster 3", fillcolor="#8139e5f0"] ;
291 -> 292 ;
293 [label="gini = 0.0\nsamples = 11\nvalue = [0, 0, 16]\nclass = Cluster 3", fillcolor="#8139e5ff"] ;
292 -> 293 ;
294 [label="alcool <= 0.65\ngini = 0.5\nsamples = 2\nvalue = [1, 0, 1]\nclass = Cluster 1", fillcolor="#e5813900"] ;
292 -> 294 ;
295 [label="gini = 0.0\nsamples = 1\nvalue = [1, 0, 0]\nclass = Cluster 1", fillcolor="#e58139ff"] ;
294 -> 295 ;
296 [label="gini = 0.0\nsamples = 1\nvalue = [0, 0, 1]\nclass = Cluster 3", fillcolor="#8139e5ff"] ;
294 -> 296 ;
297 [label="gini = 0.0\nsamples = 2\nvalue = [3, 0, 0]\nclass = Cluster 1", fillcolor="#e58139ff"] ;
291 -> 297 ;
298 [label="gini = 0.0\nsamples = 62\nvalue = [0, 0, 102]\nclass = Cluster 3", fillcolor="#8139e5ff"] ;
286 -> 298 ;
}